// AUTO-GENERATED from datasets/smart-layer.signals.model.json
// DO NOT EDIT BY HAND. Regenerate: node tools/ml/emit-signals-model-ts.mjs
// (run after tools/ml/train-region-classifier-signals.mjs re-trains the model)
import type { LearnedSignalsArtifact } from './learnedProvider';

export const SIGNALS_MODEL: LearnedSignalsArtifact = {
  "model": "smart-layer-region-role-classifier-SIGNALS-ONLY",
  "modelType": "softmax-logistic-regression",
  "version": 2,
  "trainedAt": "2026-06-13T06:39:43.440Z",
  "classes": [
    "dense-tonal",
    "label-text",
    "line-decoration",
    "paper",
    "solid-content",
    "structural-frame"
  ],
  "featureNames": [
    "darknessL",
    "log1pArea",
    "aspectRatioClamped",
    "log1pPerimeter",
    "log1pBboxW",
    "log1pBboxH",
    "zIndex",
    "areaFractionOfParent",
    "enclosesSiblingCount",
    "isContained",
    "isPartOfStripeCluster",
    "hasParent",
    "hasStroke",
    "hasFill",
    "hasDasharray",
    "opacity",
    "fillOpacity",
    "strokeBin=none",
    "strokeBin=hairline",
    "strokeBin=thin",
    "strokeBin=medium",
    "strokeBin=heavy",
    "tag=rect",
    "tag=circle",
    "tag=ellipse",
    "tag=path",
    "tag=polygon",
    "tag=polyline",
    "tag=line",
    "tag=text",
    "tag=g",
    "tag=other"
  ],
  "standardizer": {
    "mean": [
      0.28261208576998076,
      4.226669357587486,
      1.516240702697661,
      3.3451424683006263,
      2.8508608868841216,
      2.312709732237036,
      3.98635477582846,
      0,
      0.5779727095516569,
      0.6754385964912281,
      0.04678362573099415,
      0,
      0.6549707602339181,
      0.5701754385964912,
      0.02631578947368421,
      0.9965399610136454,
      1,
      0.34502923976608185,
      0.037037037037037035,
      0.2982456140350877,
      0.17153996101364521,
      0.14814814814814814,
      0.260233918128655,
      0.19883040935672514,
      0.02631578947368421,
      0.08382066276803118,
      0.024366471734892786,
      0,
      0.2699805068226121,
      0.10721247563352826,
      0.029239766081871343,
      0
    ],
    "std": [
      0.42910070409379475,
      2.920592383416802,
      2.0821982250242637,
      1.708231793681455,
      1.293073313266437,
      1.347109858809878,
      3.7624342103460187,
      1,
      1.658757155438339,
      0.46843908173753,
      0.21127807584229294,
      1,
      0.47560964637984937,
      0.4952923437492659,
      0.16015076337309606,
      0.04036681638393194,
      1,
      0.47560964637984937,
      0.18894467532649944,
      0.45771099850394237,
      0.37716395718133255,
      0.35542002837108233,
      0.43897613009126396,
      0.3993147746574556,
      0.16015076337309642,
      0.2772538204921822,
      0.15425932618089164,
      1,
      0.44416586619507037,
      0.30953407579514347,
      0.16856006244440902,
      1
    ]
  },
  "weights": [
    [
      0.18284422492701458,
      -0.29905785097091536,
      0.2829293452389373,
      0.7187600706805509,
      -0.25010869783260004,
      -0.4319131933497773,
      -0.015192671107154264,
      0,
      -4.231901682666522,
      -1.9186720241432604,
      -0.5896269044557934,
      0,
      -0.002921745256958092,
      1.4573752526520918,
      -0.004305291970257676,
      0.0339267556137913,
      0,
      0.00292174525695807,
      -0.06011867518288588,
      -0.3689483177234702,
      0.4774005430498906,
      -0.0034243476548498656,
      0.3090580004470776,
      0.30408936649331547,
      0.26517952899811753,
      0.14729726935134105,
      0.10676008296308107,
      0,
      -0.17188821371780447,
      -0.8889838564845457,
      -0.03176886136316717,
      0,
      -0.9695083679227314
    ],
    [
      -1.0167673644068576,
      -0.3728295749198448,
      -1.3239828105139897,
      -1.1413803285302182,
      -1.0721673695572393,
      0.10328980249030574,
      0.3388220027853545,
      0,
      0.0011272482963349904,
      -0.550253140662788,
      -0.060954345831879295,
      0,
      -0.5221250230607569,
      0.40617356032359997,
      -0.007242179099436824,
      0.0025111417374451836,
      0,
      0.5221250230607569,
      -0.008945848223373902,
      -0.24114034565085046,
      -0.22883139526323648,
      -0.14056012676783777,
      -0.2800120547136776,
      -0.7559500716883336,
      -0.06047870115158457,
      -0.2651003821154445,
      -0.14249849942687598,
      0,
      -0.22846150046042893,
      2.2839511533408254,
      -0.44813546559757483,
      0,
      -0.9072985056081556
    ],
    [
      -0.2232213939628186,
      -0.5382192339502273,
      -0.4403884828929727,
      -0.5168507139778021,
      -0.3466610467245576,
      -0.184017058061279,
      0.0494877416163265,
      0,
      -0.19224390578558687,
      0.2723009875553931,
      1.6144643633331888,
      0,
      0.2872718438555198,
      -0.7806713859517965,
      0.08775441135450729,
      -0.01585053058909244,
      0,
      -0.2872718438555197,
      0.05644569829204158,
      0.27183640967483313,
      -0.11062779119907223,
      0.12173328310397952,
      -1.0354771659255189,
      -0.4070974395592418,
      -0.14950714351893454,
      -0.07246391664929042,
      -0.18482609757643398,
      0,
      1.686347147873674,
      -0.22345618732848085,
      0.05816902447315807,
      0,
      2.132036866879637
    ],
    [
      -1.1416592766771323,
      0.3215716128020133,
      0.8538725126156594,
      0.36456262438888554,
      -0.5601917443892089,
      0.49624009643848277,
      -0.17339788223356062,
      0,
      1.4896952455493335,
      -0.16474417447972525,
      -0.6970714814365031,
      0,
      -0.06865275670109297,
      -1.4895092109776176,
      -0.013270083245802113,
      0.03590883774165198,
      0,
      0.068652756701093,
      -0.23879294524474104,
      0.2486826060765813,
      -0.006180511093802949,
      -0.27861951448899486,
      0.36216356368159336,
      0.6982068917717982,
      0.310796983439928,
      0.22255217563713217,
      0.1776969320663794,
      0,
      -0.9966221701854338,
      -0.6342472971682894,
      0.3696723181768603,
      0,
      2.782416360994285
    ],
    [
      1.8783200302370109,
      -0.048544600870697015,
      0.5872775921312976,
      -0.5111948340800246,
      0.23738041985032038,
      -0.49261113092294523,
      0.3902773822177754,
      0,
      0.8759102719756101,
      2.9800515688709273,
      -0.42102237585829067,
      0,
      0.3860494355591546,
      1.5753065177705405,
      -0.07523721926741087,
      -0.0076191534880314625,
      0,
      -0.38604943555915416,
      0.11881654032559152,
      0.08001520071415892,
      0.5055118711998792,
      -0.18604920089935081,
      0.19154719803280423,
      0.5671404547969582,
      0.008190280132948733,
      0.14834760216253562,
      0.10431405072858677,
      0,
      -0.2794756157500386,
      -0.7681584797985089,
      -0.04259900428605805,
      0,
      1.7317191173521322
    ],
    [
      0.3204837798827879,
      0.9370796479096695,
      0.0402918434210678,
      1.0861031815186157,
      1.9917484386532867,
      0.5090114834052131,
      -0.5899965732787414,
      0,
      2.057412822630832,
      -0.6186832171405547,
      0.1542107442492833,
      0,
      -0.0796217543958664,
      -1.1686747338168224,
      0.012300362228400242,
      -0.04887705101576443,
      0,
      0.07962175439586631,
      0.13259523003336793,
      0.009554446908744706,
      -0.6372727166936571,
      0.4869199067070528,
      0.4527204584777221,
      -0.40638920181449256,
      -0.37418094790047635,
      -0.18063274838627255,
      -0.06144646875473744,
      0,
      -0.009899647759968459,
      0.23089466743900286,
      0.09466198859678078,
      0,
      -4.769365471695167
    ]
  ],
  "heldOutAccuracy": null
} as LearnedSignalsArtifact;
